svm_type c_svc
kernel_type linear
nr_class 4
total_sv 17
rho 2.0803110375424181 43.29652151104743 1.8060516803668198 0.31456412658465804 0.19182840394939676 0.51246621750423405
label 14 15 24 25
nr_sv 4 6 4 3
SV
2.3753816018901099e-06 0 8.5262305098392546e-08 0:1.20659 1:4 2:3.76067 3:22.871 4:101.209 5:-1.5 6:-1.33333 7:-99.7899 8:-824.93 9:-1000 10:-96.9888 11:900.21 12:3.85154 13:6 
6.936881729223923e-07 2.0382887632954066e-05 0 0:1.32999 1:4 2:3.61692 3:21.4938 4:98.5438 5:-1 6:-0.333333 7:-3.427 8:-700.822 9:-1000 10:-208.705 11:996.573 12:51.0624 13:3 
9.8335511225078358e-07 0.00051991795122824109 3.1782514385203835e-06 0:0.945439 1:4 2:3.83868 3:20.6663 4:100.342 5:0 6:-0.571429 7:-87.809 8:-996.59 9:-945.439 10:-228.19 11:857.63 12:3.41006 13:4 
0 1.3900706803044834e-05 0 0:0.997952 1:4 2:4.96437 3:25.5122 4:96.5313 5:-0.6 6:0.230769 7:-62.116 8:-828.669 9:-997.952 10:-432.082 11:935.836 12:171.331 13:4 
-0 0 0.00021048975554808101 0:1.08346 1:4 2:4.85839 3:21.1776 4:100.573 5:1.8 6:1.71429 7:-97.3837 8:-909.399 9:-64.438 10:0 11:902.616 12:13.5659 13:3 
-0 1.2710759905309222e-05 0 0:1.37128 1:4 2:5.70099 3:20.0595 4:98.5825 5:-0.409091 6:-1 7:-144.317 8:-654.747 9:-292.465 10:-0.425713 11:855.683 12:74.4998 13:8 
-0 0 0.00032477792418249296 0:0.991556 1:4 2:5.15382 3:19.8535 4:101.665 5:-1.6 6:-4.33333 7:-4.88889 8:-822.222 9:-260 10:0 11:986.667 12:177.778 13:3 
-0 0 4.0265543832726141e-05 0:1.06294 1:4 2:5.13133 3:20.9226 4:102.015 5:-1.85714 6:2.16667 7:-71.0526 8:-852.193 9:-217.105 10:0 11:928.947 12:88.5965 13:7 
-4.0524248870632858e-06 0 0 0:1.2362 1:4 2:5.50068 3:22.8653 4:90.7672 5:-2 6:5 7:-78.125 8:-746.875 9:-309.375 10:0 11:921.875 12:62.0536 13:5 
-0 4.7255110728546209e-06 0 0:1.11727 1:4 2:7.3995 3:25.5015 4:79.3455 5:-0.625 6:-1 7:-117.901 8:-646.298 9:-127.965 10:-0.718907 11:882.099 12:248.742 13:1 
-0.0002275129695131259 -0 0 0:0.874561 1:4 2:3.99601 3:19.666 4:86.7177 5:-0.333333 6:-0 7:-67.7371 8:-998.495 9:-874.561 10:-345.71 11:806.824 12:1.50527 13:5 
-0 -7.8640512742837974e-06 7.8846603489503318e-06 0:1.30033 1:4 2:10.5931 3:9.81253 4:55.2077 5:5.5 6:-2.33333 7:0 8:-160.814 9:-203.438 10:0 11:1000 12:608.221 13:3 
-0.00032668857615111423 -0 0 0:0.931883 1:4 2:3.65565 3:19.9519 4:80.2061 5:-0.142857 6:0.166667 7:-74.4133 8:-947.911 9:-931.883 10:-137.951 11:857.47 12:52.0893 13:1 
-0 -9.5722197038800473e-06 1.1144255183632739e-05 0:0.655346 1:4 2:3.94182 3:19.5516 4:88.0493 5:-1.33333 6:0 7:-97.2923 8:-932.079 9:-655.346 10:-215.695 11:558.054 12:67.9211 13:3 
-4.774740971251878e-07 -0.00057448189878276268 -0 0:0.929002 1:4 2:5.16004 3:23.6644 4:94.8793 5:-1 6:3 7:-8.03751 8:-888.814 9:-196.919 10:0 11:920.965 12:111.186 13:5 
-2.7860396464935878e-06 -0 -0 0:0.952489 1:4 2:5.14363 3:23.9591 4:85.6131 5:-2.8 6:4.5 7:-163.65 8:-927.602 9:-209.653 10:0 11:788.839 12:72.3982 13:4 
-0 -1.0513247805376037e-06 -1.9028915532583076e-05 0:0.786203 1:4 2:5.50391 3:22.5593 4:93.7314 5:-0.125 6:12 7:-68.9852 8:-751.995 9:-210.376 10:0 11:717.218 12:248.005 13:7 
