svm_type c_svc
kernel_type linear
nr_class 21
total_sv 210
rho -1.2767831410010435 0.13449991524826091 -1.3443897655603534 2.1355239116726601 -1.7546280069213906 -5.9364666651849456 1.4281625787799617 -87.007488428374629 0.012405371123268828 -25.410766372464021 0.56514830095377333 -12.691470681937371 0.68052711833618951 -8.1599743065550125 0.29417805898887761 -6.700062102135675 0.016589005057404484 -3.0585042720362834 -0.11243510003799155 0.044636053538519724 72.703830237761579 -0.027988474988189127 -1.6139972174773543 -1.9717436830889516 -2.9610210429900627 -34.813119291250047 -2.5474028299744331 -1.6737294627029793 -1.4314142454044771 9.8295358893473512 -2.8453180583798336 0.91257255891309941 -1.0477408860978901 1.2801904422857582 -2.123682192516771 2.8207059473011569 -2.457595541705615 8.1300222476102313 -0.3989531754714557 -0.28056770591905722 -1.4455212696829822 -2.6798170308283349 -1.9889390347271956 -2.1127852233557674 -1.7523303972513478 -25.773049766232106 -1.7459256437918782 -1.4158567099836041 -2.081090031523118 -0.78860402015685216 -1.865479880615494 -0.8858732996606502 -1.469829101427397 -1.9648947868181004 -1.4990886042474272 -2.9809653775700018 -1.301345852740601 -0.018547256640644105 -0.068286041929671304 -0.3732679795683716 0.22384401738947746 -0.24157139124529026 0.19133683442239513 -0.11278013775602197 0.16646991229976491 -0.19322348389226918 0.13242016287349767 -0.27084792724948697 0.10673823312469027 -0.15048294817470811 0.16648601665445201 -0.19686376721657745 -0.060643354956269713 -0.056241004630062763 -2.7874081010155107 -2.0311780182757659 2.8410224229546159 -19.94354460339375 0.10756631765268578 -4.7874876388852581 0.49704549113877811 -4.9347616798392782 0.73967032660360332 -1.8998593814328109 0.59673595984752159 -2.7194658494805499 0.5526019506485953 -2.3181216479962021 0.90207061652985265 -0.36012745492276865 -0.057558900288993541 2.9948049603471971 -5.2864786883197041 6.8279361023998897 4.153197988994684 2.1111456411718623 2.0115518120133657 14.450851791781028 -2.2538219624836904 5.0154405103948534 -25.030012948703586 2.397884968014194 6.2248812559705016 2.8610418358299028 4.8981012801324253 5.1521005375515774 5.4275547778129187 1.1519806038376594 6.8130750141156815 1.7782746546456332 3.3691268893823496 2.525433559296109 19.598639747349445 2.7393503313259502 0.53209551456210624 1.280476526505248 5.3751194474718345 2.0044750173088168 2.4995706184507016 -4.6856070266178307 0.36574346242291217 -5.366331327426618 0.65148716783304217 -4.762130647145562 -0.55307596542024029 -4.2148020946744404 -0.62986888224337401 -3.9258199396671314 1.2303767936382948 -3.4444764644224368 6.7126209708998674 -2.4534030937043196 1.1404631874910223 13.976017287102543 1.3024317612555731 108.76280903093269 2.7588513123341527 -3.9883208288537078 2.5158094612736499 -7.8836405137869914 1.0176371113359277 0.27817343851925391 1.6026033345714215 2.4894345916120013 -0.28098289163430179 3.8384165805352319 -1.6450679611277064 3.8083675632408132 -1.4413699402167663 6.2452068814667951 -1.0811090723789936 9.5817127607760142 -0.97920266866859551 5.2256442144132471 0.26742231724860455 1.2118200448161951 -40.318427393306401 2.3773186820967949 -12.401949282488287 2.2936882104395981 -8.5052320282193623 1.0507203871991935 -13.032888394717281 1.3570401359359472 0.74909720599567908 -1.8906334365947028 -0.61690793532942445 -2.1465091626748856 -2.0086185039003377 -1.1438416622402681 -3.1659605772873407 -1.5630085897939054 -16.857864602081925 -0.93367711538899112 4.7296850282934537 1.5583132754084179 3.4741048603364142 -53.20576201461563 1.8756956551634114 37.022084905525325 2.6009954216200941 4.3775383324923576 -2.9076942479492569 -1.7190365356789119 -7.1833359172217301 -0.73786619433986755 -6.1934007075116844 -0.99328767519095729 -3.464455722306178 3.9542383033645363 -0.5586163532599232 1.3488065048698494 6.5611166738845048 1.9766390232173232 3.8331938481672045 -3.6837755938301449 -0.15427601481241246 -3.3743951625700701 -1.3601371234330819 -5.9867693679449321 1.1748421431499605 -1.5147408547037255 1.18649651077786 6.5781478019761899 -1.4408147627055754 -6.9498399835271103 -1.3239301355652304 1.2439631704841583 4.0150935935949796 -0.55967753929061514
label 4 10 5 2 11 12 13 16 17 18 19 20 21 22 23 26 27 28 29 30 25
nr_sv 23 21 14 1 5 9 6 12 13 8 13 6 12 6 9 8 15 5 12 11 1
SV
8.9540345582621164e-06 3.1681727284750836e-06 3.9559896879414664e-06 0 0 0 1.8661992051466427e-05 0 8.5467906264509491e-07 0 2.6971818153163189e-06 0 1.4359041987700481e-06 0 8.4435284500617663e-07 0 1.5122298415695657e-06 0 2.9016192794316667e-06 2.8157070154249554e-07 0:0.604732 1:3 2:9.35533 3:10.5555 4:74.563 5:3 6:3.33333 7:-218.219 8:-66.2268 9:-14.8439 10:-243.91 11:386.514 12:933.773 13:4 
0 0 0 0 0 0 0 0.001418619655578513 0 0 0 0 0 0 0 0 0 0 0 0 0:1.46585 1:3 2:2.70199 3:11.5396 4:129.314 5:1.85 6:-1 7:-47.2879 8:-613.004 9:-1000 10:-199.93 11:952.712 12:69.1933 13:4 
1.0469439421252974e-07 0 0 0 0 0 0 0.0016769112053580853 0 0 0 0 0 0 0 0 0 0 0 0 0:1.50308 1:3 2:2.36837 3:10.0217 4:133.738 5:2.66667 6:-0.6 7:-3.15159 8:-581.469 9:-1000 10:-139.931 11:996.848 12:83.8323 13:1 
0 0 0 0 0 0 0 0.00028217651472581967 0 0.00023969896412249651 0 0 0 0 0 0 0 0 0 0 0:0.976385 1:3 2:3.38289 3:12.247 4:122.892 5:1.03333 6:0.08 7:-28.7617 8:-765.365 9:-976.385 10:-382.077 11:947.623 12:234.635 13:5 
0 0 0 0 0 0 0 0.0022258906524125145 0 0 0 0 0 0 0 0 0 0 0 0 0:1.4097 1:3 2:2.9907 3:13.0661 4:116.02 5:2.16667 6:-0.2 7:-9.4583 8:-530.811 9:-1000 10:-296.073 11:990.542 12:178.561 13:6 
0 0 0 0 0 0 0 0 0 0.0010173376563314797 0 0 0 0 0 0 0 0 0 0 0:1.74109 1:3 2:2.86517 3:12.0125 4:110.112 5:-1.5 6:-0.5 7:-148.709 8:-519.59 9:-980.855 10:-134.907 11:851.291 12:54.764 13:2 
0 0 0 0 0 0 0 0.0020525088851646883 0 0 0 0 0 0 0 0 0 0 0 0 0:1.46585 1:3 2:2.70199 3:11.5396 4:129.314 5:1.85 6:-1 7:-47.2879 8:-613.004 9:-1000 10:-199.93 11:952.712 12:69.1933 13:4 
0 0 0 0 0 0 0 0.00034718221501505472 0 0 0 0 0 0 0 0 0 0 0 0 0:0.976385 1:3 2:3.38289 3:12.247 4:122.892 5:1.03333 6:0.08 7:-28.7617 8:-765.365 9:-976.385 10:-382.077 11:947.623 12:234.635 13:5 
0 0 0 0 0 0 0 0.0025226986487553752 0 0 0 0 0 0 0 0 0 0 0 0 0:1.4097 1:3 2:2.9907 3:13.0661 4:116.02 5:2.16667 6:-0.2 7:-9.4583 8:-530.811 9:-1000 10:-296.073 11:990.542 12:178.561 13:6 
0 0 0 3.365702483620836e-05 0 0 0 0 0 0.0050974152838654764 0 9.0333556185381731e-05 3.9334238531164758e-06 0 0 6.6469268368174041e-05 0 3.744713154948823e-06 0 1.7170518729750477e-06 0:1.74109 1:3 2:2.86517 3:12.0125 4:110.112 5:-1.5 6:-0.5 7:-148.709 8:-519.59 9:-980.855 10:-134.907 11:851.291 12:54.764 13:2 
0 0 0 0 0 0 0 0 0 0 0 0 0 6.1932384194213867e-05 6.7251639764609098e-06 0 0 4.1576355339878376e-06 0 5.1200224888991055e-06 0:1.58502 1:3 2:3.69712 3:11.928 4:103.266 5:-1.57143 6:-0.333333 7:-239.13 8:-544.423 9:-926.749 10:-265.595 11:760.87 12:86.4839 13:4 
0 0 0 5.3230372665040832e-05 0 0 0 0.01109133348151272 0 0 0 0 0 0 0 0 0 0 0 0 0:1.85722 1:3 2:2.35962 3:10.9586 4:136.619 5:0.6 6:-0.25 7:-25.8176 8:-381.813 9:-1000 10:-49.0534 11:974.182 12:156.627 13:1 
0 2.4813150450782219e-06 0 0 0 0 0 0.012963269078579592 0 0 0 0 0 0 0 0 0 0 0 0 0:2.13017 1:3 2:2.14719 3:10.3222 4:116.405 5:-1.33333 6:-0.454545 7:-4.78738 8:-331.456 9:-1000 10:-85.3281 11:995.213 12:137.989 13:6 
0 0 1.0330501022066201e-06 0 0 0 0 0 0 0 0 0 0 0 0 0 0 0 0 0 0:0.883537 1:3 2:4.14285 3:13.9795 4:102.613 5:1.4 6:-0.333333 7:-24.4428 8:-567.937 9:-872.753 10:-564.342 11:859.094 12:432.063 13:4 
0 0 0 0 0 0.00019735583120020445 0 0 0 0 0 0 0 0 0 0 0 0 0 0 0:1.68498 1:3 2:2.74797 3:11.8582 4:139.523 5:0.333333 6:-0.5 7:-81.1528 8:-566.553 9:-999.242 10:-268.108 11:918.847 12:26.9245 13:6 
0 0 0 0 0 0.00014558624824288018 0 0 0 0 0 0 0 0 0 0 0 0 0 0 0:1.26523 1:3 2:3.05319 3:10.8539 4:118.422 5:0.307692 6:0.25 7:-64.8292 8:-647.127 9:-988.742 10:-388.975 11:935.171 12:143.245 13:1 
0 0 0 0 0 0 0 0.015266194855046943 0 0 0 0 0 0 0 0 0 0 0 0 0:1.50308 1:3 2:2.36837 3:10.0217 4:133.738 5:2.66667 6:-0.6 7:-3.15159 8:-581.469 9:-1000 10:-139.931 11:996.848 12:83.8323 13:1 
0 0 0 0 0 0 0 0.00072331537633555135 0 0.00048401181408982502 0 0 0 0 0 0 0 0 0 0 0:0.976385 1:3 2:3.38289 3:12.247 4:122.892 5:1.03333 6:0.08 7:-28.7617 8:-765.365 9:-976.385 10:-382.077 11:947.623 12:234.635 13:5 
0 0 0 0 0 0 0 0.0020409054733900333 3.277496919158783e-06 0 2.0987876644286236e-07 0 0 2.2500941108092499e-05 0 0 1.6408037243523676e-06 5.4080298290076393e-05 0 3.7810048031867378e-07 0:1.46585 1:3 2:2.70199 3:11.5396 4:129.314 5:1.85 6:-1 7:-47.2879 8:-613.004 9:-1000 10:-199.93 11:952.712 12:69.1933 13:4 
1.5143318790913886e-05 1.8644344800601436e-06 0 -0 1.4987624377814963e-05 0 2.0674622256621161e-05 0.07238147684077037 0 0 0 0.0013431776136452491 0 0 0 8.2761617945386975e-05 7.0962000103564767e-07 0 6.8069035878613508e-06 0 0:1.50308 1:3 2:2.36837 3:10.0217 4:133.738 5:2.66667 6:-0.6 7:-3.15159 8:-581.469 9:-1000 10:-139.931 11:996.848 12:83.8323 13:1 
0 0 0 0 5.1793414532707948e-06 0 0 0.0018650832481676683 7.322584640830923e-07 0.001508416389886162 5.43707132370365e-06 0.00010899362977787024 1.9327492487783679e-06 4.4218672755065655e-05 0 6.2960582704976454e-05 1.1495279858090665e-07 1.5303254255913458e-05 1.329151132083992e-07 0 0:0.976385 1:3 2:3.38289 3:12.247 4:122.892 5:1.03333 6:0.08 7:-28.7617 8:-765.365 9:-976.385 10:-382.077 11:947.623 12:234.635 13:5 
0 0 0 4.745229450040636e-05 0 0 1.8848711331705707e-05 0 0 0.00033626402573210901 0 0 0 0 0 0 0 0 0 0 0:1.88444 1:3 2:2.33454 3:10.4485 4:111.975 5:0.153846 6:-0.230769 7:-53.9832 8:-479.036 9:-1000 10:-129.193 11:946.017 12:51.6247 13:2 
1.3616506489136973e-06 0 0 0 0 0 0 0 0 0 0 0 0 0 0 0 0 0 0 0 0:2.00048 1:3 2:2.39056 3:11.219 4:121.746 5:1 6:-0.214286 7:-5.31786 8:-380.952 9:-988.397 10:-258.883 11:994.682 12:118.927 13:4 
-2.705144032558744e-07 0 0 0 0 0 0 0 0 0 0 0 0 0 0 0 0 0 0 0 0:1.56198 1:3 2:6.34739 3:15.4931 4:100.166 5:0.565217 6:-1 7:-9.74659 8:-246.449 9:-469.507 10:-59.8719 11:990.253 12:393.762 13:1 
-1.9517424740344417e-07 0 0 0 0 0 0 0 0 0 0 0 0 0 0 0 0 0 0 0 0:0.949627 1:3 2:7.66221 3:20.0933 4:103.343 5:0.222222 6:0.483871 7:-8.86194 8:-889.925 9:-496.269 10:-594.216 11:940.765 12:110.075 13:4 
-0 0 0 0 0 0 0 0 0 0 4.8771841349135371e-05 0 0 0 0 0 0 0 0 0 0:0.941572 1:3 2:9.02433 3:15.1628 4:108.233 5:-3.33333 6:1 7:-0.876424 8:-743.208 9:-314.636 10:-465.966 11:940.695 12:256.792 13:4 
-5.1719536531923672e-06 0 0 0 2.3598844185175626e-06 4.1847386939741281e-06 0.00060941928672420247 3.0672953736526698e-07 0 3.6315835459141895e-06 6.5193448815654217e-06 1.0364413860675934e-06 1.3899809204578591e-06 1.5420292736362167e-05 1.700947188917214e-06 2.0894663915928174e-06 0 3.0822450167857909e-06 0.00011975919537981381 1.6140024498788132e-06 0:0.949627 1:3 2:7.66221 3:20.0933 4:103.343 5:0.222222 6:0.483871 7:-8.86194 8:-889.925 9:-496.269 10:-594.216 11:940.765 12:110.075 13:4 
-8.4160226528292783e-07 0 1.298953504048083e-06 0 0 0 0 0 0 0 0 0 0 0 0 0 0 0 0 0 0:1.14472 1:3 2:7.58314 3:14.0227 4:94.4463 5:0 6:-0 7:-17.9748 8:-509.287 9:-466.747 10:-401.438 11:982.025 12:364.29 13:6 
-0 0 0 0 0 4.1901994753517982e-06 0.0084146919635649242 0 0 0 0 0 0 0 0 0 0 0 0 0 0:1.74359 1:3 2:6.03912 3:17.921 4:109.297 5:1 6:5 7:-8.33333 8:-550.98 9:-467.647 10:-284.804 11:991.667 12:22.549 13:5 
-0 0.0047158238532395459 0 0 0 0 0 0 3.6826202185617291e-05 0 0 0 0 0 0 0 0 0 0 0 0:1.80222 1:3 2:8.4322 3:20.3258 4:118.535 5:-0.333333 6:-16 7:-1.02564 8:-514.188 9:-64.6154 10:-121.026 11:998.974 12:40.6838 13:7 
-0 0 0 0 0 0 0.0021710319896674785 0 0 0 3.7640015014618275e-06 0 0 0 1.6915794720703938e-06 0 0 0 0.00017310088728955271 0 0:1.80025 1:3 2:6.624 3:17.6043 4:101.296 5:-0.285714 6:-3.25 7:-70.2963 8:-356.995 9:-433.839 10:-55.8236 11:929.704 12:198.484 13:4 
-0 0 0 0 2.8447102992632225e-07 0 0 0 0 0 0 0 2.7918113978800806e-06 0 5.5724108103797319e-06 0 0 0 0 0 0:1.06245 1:3 2:5.14833 3:11.727 4:110.577 5:1.5 6:-3.25 7:0 8:-663.673 9:-364.898 10:-131.429 11:1000 12:277.551 13:5 
-0 0 0 0 0 0 0.0019006652181200751 0 0 0 1.6497888052060224e-05 0 0 0 0 0 0 0 0 0 0:1.03591 1:3 2:5.22291 3:11.7782 4:109.637 5:2 6:-1.42857 7:-5.89971 8:-524.336 9:-429.204 10:-36.8732 11:994.1 12:441.003 13:0 
-0 0 0 0 0 0 0 0 0 0 0 0 0 0 0 0 0 0 0.00020590378196863515 0 0:1.20859 1:3 2:7.34902 3:18.5933 4:101.755 5:-0.125 6:2.5 7:-11.1675 8:-762.437 9:-207.107 10:-265.99 11:988.832 12:64.9746 13:5 
-0 0 0 0 0 0 0.0039815967138897637 0 0 0 0 0 0 0 0 0 0 0 0 0 0:1.52116 1:3 2:6.8016 3:17.8129 4:118.956 5:6 6:-21 7:0 8:-582.689 9:-324.06 10:-197.836 11:1000 12:74.7038 13:3 
-0 0 0 1.0189348230034767e-05 6.115807125585295e-06 3.7574976474491422e-06 0.009413337815416872 8.3949979042456032e-06 0 9.5211374025203045e-06 0 9.0654988557814621e-06 3.6515526847941351e-06 2.3550792756495676e-06 2.8269613477289667e-07 6.336705928351728e-06 0 5.9154385503145614e-06 0 4.3613370672044093e-06 0:1.3767 1:3 2:4.94667 3:13.8658 4:97.4616 5:-1.33333 6:1 7:-9.86031 8:-524.24 9:-505.341 10:-116.68 11:990.14 12:202.136 13:1 
-0 0 0 0 1.7377595213309836e-06 0 0 0 3.3908047569429056e-05 0 2.9352302670167961e-05 0 1.7775982118273474e-07 0 3.6553687187395563e-06 0 1.7267968408632242e-05 0 0.00042506066483426419 4.5398321301085536e-07 0:1.11033 1:3 2:5.84898 3:14.6828 4:117.693 5:2 6:3.33333 7:0 8:-803.911 9:-149.049 10:-200.317 11:1000 12:96.723 13:6 
-0 0.001485663312152521 0 0 0 0 0 0 2.097375034562336e-05 0 0 0 0 0 0 0 0 0 0 0 0:1.8648 1:3 2:6.63649 3:16.9765 4:114.977 5:0.384615 6:-0.636364 7:-10.168 8:-419.982 9:-283.378 10:-56.5871 11:989.832 12:116.269 13:5 
-0 0 3.1501762818598842e-07 0 0 0 0 0 0 0 0 0 0 0 0 0 0 0 0 0 0:1.55191 1:3 2:8.94701 3:14.4187 4:104.061 5:0.6 6:-1.375 7:-11.5721 8:-204.629 9:-323.172 10:-66.8925 11:988.428 12:439.74 13:3 
-1.9084453823167616e-05 0 0 0 0 0 0 0 0 0 0 0 0 0 0 0 0 0 0 0 0:1.56198 1:3 2:6.34739 3:15.4931 4:100.166 5:0.565217 6:-1 7:-9.74659 8:-246.449 9:-469.507 10:-59.8719 11:990.253 12:393.762 13:1 
-0 0.011840772222468906 0 0 0 0 0 0 0 0 0 0 0 0 0 0 0 0 0 0 0:1.9976 1:3 2:7.47256 3:13.8616 4:108.382 5:0.210526 6:5 7:-22.4269 8:-239.087 9:-302.363 10:-24.8298 11:977.573 12:261.514 13:6 
-0 0.033835542383050338 0 0 0 0 0 0 6.4074167183686225e-06 0 0 0 0 0 0 0 0 0 0 0 0:1.65265 1:3 2:7.11671 3:16.7795 4:111.078 5:-2.5 6:-1.6 7:-1.98282 8:-428.949 9:-233.311 10:-45.6048 11:998.017 12:176.14 13:5 
-0 0 0 0 0 0 0 0 0 0 0 0 0 0 0 0 4.949473336381726e-06 0 0 0 0:1.18662 1:3 2:7.94788 3:18.777 4:108.505 5:-1.375 6:-3.5 7:-11.8886 8:-603.261 9:-151.495 10:-122.622 11:988.111 12:239.47 13:5 
-0 0 0 0 0 0 0 0 0 0 0 0 0 0 0 0 1.1559741679797187e-07 0 0 0 0:1.18254 1:3 2:9.79617 3:21.3949 4:109.51 5:-2 6:-1.4 7:-8.99213 8:-531.285 9:-91.0453 10:-104.908 11:991.008 12:314.35 13:5 
-0 -0.0015291413681693285 0 0 0 0 0 0 0 0 0 0 0 0 0 0 0 0 0 0 0:1.24838 1:3 2:6.16735 3:10.695 4:136.38 5:-0.714286 6:-2 7:-5.17977 8:-449.116 9:-162.096 10:-1.21877 11:994.82 12:351.92 13:4 
-0 -0 0 0 0 0 0 0 0 0 0 0 0 0 0 0 1.4578573253954758e-05 0 0 0 0:1.31099 1:3 2:4.34606 3:11.0369 4:129.058 5:1.47059 6:0.2 7:-7.86687 8:-667.474 9:-21.7852 10:0 11:992.133 12:95.3101 13:1 
-0 -0 6.9739990819659049e-07 0 0 0 0 0 0 0 0 0 0 0 0 0 0 0 0 0 0:1.71566 1:3 2:10.0503 3:12.6183 4:129.739 5:-10 6:-4 7:-2.10674 8:-313.202 9:-42.1348 10:-46.3483 11:997.893 12:269.663 13:2 
-0 -0 0 1.4111797525174272e-06 0 0 3.0193590883719216e-05 0 0 0 0 0 0 0 0 0 0 0 0 0 0:4.66506 1:3 2:5.42113 3:17.8727 4:129.569 5:1.8 6:0 7:-5.83992 8:-165.579 9:-326.692 10:0 11:994.16 12:48.7805 13:4 
-0 -0.044306512433057547 0 0 0 0 0 0 0 0 0 0 0 0 0 0 0 0 0 0 0:1.87397 1:3 2:6.52612 3:13.3191 4:108.117 5:-2 6:3 7:-6.57895 8:-380.848 9:-247.807 10:-51.1696 11:993.421 12:152.778 13:7 
-0 -0.0010533372644257015 5.6473202764046808e-07 0 0 0 0 0 0 0 1.1440651410379917e-05 0 0 0 0 0 4.2746595571299898e-07 0 2.7528671274916309e-06 0 0:1.18069 1:3 2:7.4768 3:16.0175 4:91.0919 5:0.777778 6:1.83333 7:-65.3041 8:-556.331 9:-110.668 10:-65.8026 11:934.696 12:290.628 13:4 
-7.5139222536134504e-06 -0 0 0 0 0 0 0 0 0 0 0 0 0 0 0 0 0 0 0 0:1.8698 1:3 2:7.91444 3:14.2112 4:113.324 5:-1.16667 6:-1 7:-8.6145 8:-272.075 9:-226.131 10:0 11:991.385 12:262.742 13:5 
-0 -0 0 0 0 0 0 0 0 0 7.323830875662227e-07 0 2.9186137803598242e-06 0 3.275833672507176e-06 0 1.7022808037184988e-05 0 0 1.1019411824579709e-06 0:1.49803 1:3 2:3.69752 3:8.68775 4:113.129 5:0 6:1.25 7:-203.094 8:-618.828 9:0 10:0 11:796.906 12:48.7163 13:6 
-0 -0 0 0 0 0 0 0 0.0015811306218455078 0 0 0 0 0 0 0 0 0 0 0 0:1.49892 1:3 2:3.98808 3:9.31511 4:123.352 5:-2.5 6:1.75 7:-10.1302 8:-610.347 9:-145.08 10:0 11:989.87 12:56.8017 13:5 
-0 -0.0049888107052586802 0 0 0 0 0 0 0 0 0 0 0 0 0 0 0 0 0 0 0:1.24838 1:3 2:6.16735 3:10.695 4:136.38 5:-0.714286 6:-2 7:-5.17977 8:-449.116 9:-162.096 10:-1.21877 11:994.82 12:351.92 13:4 
-0 -0 0 4.773897079400463e-06 0 4.1589368660508048e-06 5.6090163162458438e-05 4.3924528713813263e-06 0 5.1978445548313671e-06 0 2.4607943507894608e-06 0 1.6323232660545897e-06 0 1.9678871062840494e-06 0 2.0836218611199562e-06 0 1.1495435564732835e-06 0:1.98341 1:3 2:4.2825 3:10.6235 4:117.812 5:0 6:24 7:-12.0855 8:-456.771 9:-300.899 10:0 11:987.914 12:47.4125 13:5 
-0 -0 0 0 0 0 0 0 1.9611271943613332e-05 0 0 0 0 0 0 0 0 0 0 0 0:1.66 1:3 2:4.48911 3:11.7205 4:96.5285 5:-0.363636 6:2.57143 7:-14.9868 8:-591.831 9:-4.99559 10:0 11:985.013 12:10.5789 13:4 
-0 -0 0 0 7.0790165790815248e-06 0 0 0 0 0 0 2.1008030663640981e-06 3.7493645475226662e-06 2.0721893490361705e-06 6.5260191033974196e-06 2.0214982184267239e-06 0 1.8887734377236161e-06 4.8686935544149875e-05 2.561350840044845e-06 0:1.48274 1:3 2:3.98806 3:9.13342 4:122.396 5:-1.14286 6:2.8 7:-4.94617 8:-581.612 9:-226.36 10:0 11:995.054 12:92.8135 13:5 
-0 -0 0 0 0 0 0 0 0.00015742698317798494 0 1.0888866759497298e-05 0 0 0 0 0 0 0 0 0 0:1.34779 1:3 2:4.17617 3:10.0873 4:126.702 5:0.777778 6:1.2 7:-12.5296 8:-647.477 9:-112.089 10:0 11:987.47 12:94.4802 13:5 
-4.9890397901480873e-06 -1.6139711322340714e-06 -1.2621319358370586e-06 7.8574255777519985e-07 7.8258357719438714e-07 9.0235195093900729e-07 1.4446739849807483e-06 8.1527794890887419e-07 9.2099836364078195e-07 8.8380103534619577e-07 1.3457997284738039e-06 8.7799448488029329e-07 9.3604045629765047e-07 9.7941225132139307e-07 9.7772887131145527e-07 8.0235486771397096e-07 1.0063325190086759e-06 8.0714806924681074e-07 1.123718311528194e-06 7.5110060020951111e-07 0:0.303242 1:3 2:2.41613 3:11.1508 4:102.457 5:1.10526 6:0.428571 7:-10.5011 8:-122.881 9:-102.248 10:-878.408 11:292.741 12:877.119 13:3 
-0 -0 -6.1850768319178913e-06 -7.8574255777519985e-07 0 0 1.8538703294869517e-05 0 4.2458258052094649e-06 0 1.8363450596276128e-06 0 5.7567997120597687e-06 0 5.5251380011095747e-06 0 2.9231528554587497e-06 0 1.8189716834880637e-06 7.0236736887862088e-06 0:2.28326 1:3 2:3.32572 3:18.0606 4:129.638 5:-1 6:-1 7:-123.434 8:-435.464 9:-848.371 10:0 11:876.566 12:2.50627 13:5 
-4.9161426629277268e-05 -0 -0 -0 1.5349406555943613e-05 1.6326440468411628e-05 0 0.012389084501206883 0 0.0007859671768549719 0 7.9419785573464684e-05 0 0 0 2.4180364341917119e-05 0 1.1649342509319351e-05 0 0 0:1.81439 1:3 2:2.60854 3:15.0184 4:130.282 5:-3 6:-0.4 7:-30.6905 8:-526.854 9:-1000 10:-0.639386 11:969.309 12:24.2967 13:3 
-7.4318084225189935e-05 -0 -0 -0 0 0 0 0 0 0 0 0 0 0 0 0 0 0 0 0 0:2.33241 1:3 2:2.80845 3:17.8941 4:133.664 5:6.33333 6:0.285714 7:-93.8242 8:-406.77 9:-992.28 10:0 11:906.176 12:21.9715 13:4 
-0 -0 -0 -0 0 0 0 0 0 0 0 0 0 1.6718558590193928e-05 0 8.0783371806964068e-06 0 9.2477973553962205e-06 0 0 0:1.89559 1:3 2:2.75725 3:15.6653 4:123.744 5:-2.6 6:0 7:-89.7217 8:-509.37 9:-999.432 10:0 11:910.278 12:18.1715 13:2 
-1.0860181147188352e-05 -1.0189348230034765e-05 -0 -0 0 0 0 0.00011714000338385711 2.8838084415540072e-07 0.0001043367818209319 1.7719205187243153e-06 0 0 0 0 0 0 0 4.2881640124723608e-06 0 0:2.01679 1:3 2:3.12438 3:17.2555 4:125.912 5:0.8 6:-0.142857 7:-68.6785 8:-472.425 9:-882.934 10:-10.4058 11:931.322 12:23.4131 13:3 
-0 -6.8990841689011261e-06 -0 -0 -0 0 6.7016129813031835e-06 0 0 0 0 0.00045871707637465403 0 0 0 0 0 0 0 0 0:0.894817 1:3 2:3.23729 3:14.1588 4:123.633 5:3 6:3.5 7:-44.2073 8:-905.996 9:-667.175 10:0 11:850.61 12:94.0041 13:5 
-0 -0 -0 -0 -0 0 0 0 4.0666853460540944e-06 0 4.5389140016263615e-06 0 0.00027375681207767133 0 1.0999882750489245e-05 0 5.3856946249375824e-06 0 0 0 0:0.641786 1:3 2:2.50696 3:12.594 4:123.866 5:-1.5 6:-5.5 7:-22.6591 8:-985.671 9:-583.472 10:0 11:619.127 12:14.3286 13:4 
-0 -0 -0 -0 -0 0 0 0.00023124287565951928 0 0 0 0 0 1.413392782459533e-05 0 0.0045632144611969377 0 0 0 0 0:0.967413 1:3 2:2.47444 3:11.5063 4:113.548 5:-0.25 6:-5 7:-11.2016 8:-954.684 9:-966.904 10:-3.56415 11:956.212 12:45.3157 13:5 
-2.0166965831085759e-05 -0 -0 -0 -1.5349406555943613e-05 1.6765708097060092e-05 0 4.8531823427851451e-05 0 4.0830375789435513e-05 0 0.00315147136862473 0 0 0 0 0 0 0 0 0:0.957051 1:3 2:2.8566 3:14.0312 4:117.829 5:-2.5 6:1.66667 7:-8.33333 8:-866.667 9:-957.051 10:-3.20513 11:948.718 12:133.333 13:3 
-0 -0 -0 -0 -0 0 0 0 0 0 0 0.00095119443955926555 0 3.4490065388421366e-05 0 0.0129363247706905 0 0.00026190540677065513 0 0 0:0.868488 1:3 2:2.95048 3:14.1405 4:115.26 5:-0.428571 6:-0.5 7:-82.4482 8:-904.906 9:-855.336 10:-3.0349 11:786.039 12:95.0936 13:6 
-0 -0 -0 -7.8258357719438714e-07 -0 0 0 0 0 0 0 0 0 0 3.0142717025433365e-05 0 0 0 0 0 0:0.80852 1:3 2:3.19165 3:14.8583 4:115.066 5:-1.33333 6:-0.8 7:-51.6351 8:-932.444 9:-611.876 10:-2.15146 11:756.885 12:67.5559 13:5 
-0 -0 -0 -0 -0 0 0 0 0 0 0 0 9.3941313365033406e-06 0 0 0 0 0 0 6.6023213528985009e-05 0:0.844922 1:3 2:3.01723 3:13.537 4:123.079 5:1.71429 6:19 7:-139.907 8:-979.772 9:-684.366 10:0 11:705.015 12:20.2276 13:5 
-0 -0 -0 -0 -0 0 0 0 0 0 0 7.6868331798659968e-05 0 0 0 0 0 0 0 0 0:1.00864 1:3 2:3.36599 3:15.6631 4:121.564 5:0.2 6:-17 7:-20.7488 8:-984.664 9:-654.037 10:0 11:979.251 12:6.7659 13:5 
-0 -3.5988379264590371e-06 -7.0790165790815248e-06 -0 -0 0 7.6385939827314345e-06 0 4.6282363458263874e-05 0 5.3716191602376779e-06 9.6632625172622572e-06 0 0 0 0 5.4743770829070759e-06 0 2.0799225347479462e-05 0 0:0.961949 1:3 2:3.56714 3:16.4921 4:109.351 5:0.555556 6:4 7:-30.7076 8:-985.981 9:-554.74 10:0 11:931.242 12:14.0187 13:3 
-0 -0 -0 -0 -6.5746600485747015e-06 -1.5009153216670845e-05 0 6.9402572017370439e-05 0 0.00014329212857063317 0 6.6437436169108265e-05 0 0 0 3.4931007663685511e-05 0 5.14193515815461e-05 0 0 0:1.3299 1:3 2:3.52968 3:19.6498 4:118.403 5:1 6:5.5 7:0 8:-725.49 9:-999.544 10:-293.206 11:1000 12:26.4478 13:6 
-0 -1.2132435816775069e-05 -4.1589368660508048e-06 -0 -2.8594288724775866e-06 -0 1.2633634689454816e-05 1.8101414577988359e-06 5.7181568999704492e-06 0 4.8912488351951395e-06 0 1.9116508168202105e-06 0 7.4887790369884192e-07 0 2.8594731172264493e-06 1.8194658977550786e-06 6.3904731304078605e-06 1.4233768348528788e-06 0:1.46799 1:3 2:3.96654 3:19.0882 4:113.227 5:0.5 6:-2.125 7:-47.3684 8:-681.203 9:-875.94 10:-307.143 11:952.632 12:0 13:5 
-0 -0 -0 -0 -0 -1.7565548803892477e-06 0 0 0 0 0 0 3.8898890152666353e-06 0.00078722778961858584 5.9635082921736313e-06 2.3550031509731934e-05 0 3.409372307539232e-05 0 6.565462886927465e-06 0:1.19887 1:3 2:3.92921 3:16.31 4:114.524 5:3 6:-2.25 7:-160.757 8:-829.787 9:-967.297 10:-349.488 11:839.243 12:4.33412 13:3 
-0.00029374237330871548 -0 -0 -0 -1.4246912225736584e-06 -0 0 0 0 0 0 0 0 0 0 0 0 0 0 0 0:1.5394 1:3 2:3.64021 3:18.4474 4:120.318 5:3 6:-1.75 7:-86.5682 8:-637.238 9:-989.694 10:-339.402 11:913.432 12:12.3669 13:4 
-1.8884349870657789e-05 -0 -0 -0 -5.4676603247856788e-06 -0 0 0 0 0 0 0 0 0 0 0 0 0 0 0 0:1.61779 1:3 2:3.18876 3:17.3334 4:111.031 5:-0.0666667 6:11.6 7:-10.9963 8:-617.794 9:-1000 10:-342.886 11:989.004 12:0.333222 13:5 
-3.0315356263711359e-05 -0 -0 -9.0235195093900729e-07 -0 -0 0 0 0 0 0 0 0 0 0 0 0 0 0 0 0:1.48479 1:3 2:3.90986 3:20.1889 4:118.388 5:-2.5 6:-1.54545 7:-8.7184 8:-596.338 9:-945.51 10:-487.358 11:991.282 12:77.1578 13:4 
-0 -0 -0 -0 -0 -0 -8.4367272990487468e-06 0 0 1.1171669084051205e-07 0 0 0 0 0 0 0 0 0 0 0:1.88456 1:3 2:7.29361 3:25.0436 4:107.466 5:6 6:-4.5 7:-116.236 8:-500.369 9:-540.959 10:-236.9 11:883.764 12:30.2583 13:6 
-0 -0 -0 -0 -4.6003266257194809e-06 -0 -3.269823747295254e-06 6.0587590495141883e-06 0 1.0719982703955811e-05 0 0 0 0 0 5.8116538092549605e-06 0 0 0 0 0:1.65291 1:3 2:6.25766 3:22.8214 4:103.729 5:-0.4 6:-3.8 7:-91.5214 8:-487.718 9:-580.032 10:-150.158 11:908.479 12:117.274 13:1 
-0 -0.011659474037368219 -0 -0 -0 -1.3094222239659583e-05 -9.270836431108143e-07 0 2.828040037662838e-05 0 1.3420471092341184e-05 0 6.368907361908136e-07 5.8525795845569768e-06 1.9483974148459898e-06 3.3024112957853286e-07 7.876427928864709e-06 3.1059411030313545e-06 0.00015293025096751165 0 0:1.30098 1:3 2:5.53315 3:18.4818 4:107.446 5:1.75 6:-7.66667 7:0 8:-679.396 9:-443.162 10:-162.078 11:1000 12:89.254 13:1 
-3.0183906009396093e-05 -0 -0 -0 -1.3938376669150034e-05 -0 -0 6.7976530711098914e-06 0 9.7497543544833378e-06 0 1.3183053417210458e-05 0 4.3766168436561811e-06 0 4.1384639220043093e-06 0 5.7715181254509588e-06 0 0 0:1.67799 1:3 2:6.78677 3:22.8752 4:104.677 5:-5.66667 6:-3.16667 7:-141.755 8:-443.587 9:-610.415 10:-167.31 11:858.245 12:152.363 13:3 
-0 -0 -0 -0 -0 -1.2459847243750337e-06 -0 0 0 0 0 0 1.1413271366746815e-05 0 1.0109707864812648e-05 0 1.2976515841914294e-07 8.2514930466398295e-07 0 1.0517977674209309e-05 0:1.44727 1:3 2:6.53408 3:20.974 4:115.627 5:1.25 6:-2.4 7:-149.079 8:-547.32 9:-507.956 10:-88.3585 11:850.921 12:143.635 13:3 
-2.8001419630397198e-05 -0 -0 -1.4446739849807483e-06 -0 -0 -0 0 0 0 0 0 0 0 0 0 0 0 0 0 0:1.46422 1:3 2:8.82265 3:22.5163 4:116.249 5:3.66667 6:-5 7:-90.3979 8:-304.498 9:-500 10:-131.92 11:909.602 12:378.46 13:3 
-0 -0.0021044481763108085 -8.6283754046177658e-05 -0 -0 -0 -0 0 0 0 0 0 0 0 0 0 0 0 0 0 0:2.27945 1:3 2:7.23527 3:28.5702 4:106.493 5:0.5 6:-1.23077 7:-38.1326 8:-365.645 9:-430.862 10:-73.7705 11:961.867 12:73.0577 13:3 
-0 -0.012726820773704331 -0 -0 -0 -0 -0 0 0 0 0 0 0 0 0 0 0 0 0 0 0:1.58025 1:3 2:8.08267 3:25.5807 4:113.905 5:-4 6:1.8 7:-21.7173 8:-434.013 9:-470.431 10:-218.51 11:978.283 12:198.797 13:2 
-0 -0 -0 -0 -0 -0 -0 0 0 0 8.4213016780632434e-06 0 0 0 0 0 0 0 0 0 0:1.28866 1:3 2:6.62887 3:18.8123 4:114.584 5:-2 6:-1.61538 7:-107.826 8:-578.435 9:-492.522 10:-149.217 11:892.174 12:197.565 13:1 
-0 -0 -0 -0 -0 -0 -0 0 0 0 1.9712469213486241e-06 0 0 0 5.225878678960926e-06 0 0 0 0 0 0:1.55252 1:3 2:7.92405 3:23.062 4:112.84 5:1.66667 6:-12.75 7:-141.913 8:-573.631 9:-459.408 10:-205.16 11:858.087 12:70.4846 13:4 
-0 -0 -0 -0 -0 -0 -0 0 3.7143597964104741e-06 0 0 0 0 0 0 0 2.5800340416893069e-06 0 0 0 0:1.87821 1:3 2:6.77953 3:24.0882 4:113.853 5:0.5 6:-3.5 7:-146.936 8:-498.513 9:-448.543 10:-64.8424 11:853.064 12:33.9084 13:4 
-0 -0 -0 -0 -0 -0 -0 0 0 0 0 0 0 0 0 0 0 0 3.5749499223746061e-05 0 0:1.63587 1:3 2:10.3813 3:22.8753 4:119.64 5:1.4 6:-3 7:-148.392 8:-417.972 9:-426.628 10:-189.2 11:851.608 12:193.322 13:1 
-0 -0 -0 -0 -0 -0 -0 -0 0 0 0 0.071588116675172814 0 0 0 0 0 0 0 0 0:1.49881 1:3 2:2.46627 3:12.595 4:129.41 5:-3 6:3 7:-3.18725 8:-649.934 9:-1000 10:-27.0916 11:996.813 12:17.2643 13:4 
-0.016725429690006132 -0 -2.44864338288404e-06 -0 -0.0039134327414220354 -0 -0 -0 0 0 0 0 0 0 0 0 0 0 0 0 0:2.10658 1:3 2:2.21325 3:11.7656 4:138.995 5:1.14286 6:5 7:0 8:-407.158 9:-999.731 10:-32.0237 11:1000 12:67.5457 13:7 
-0 -0 -0 -0 -0.0029615003269986952 -0 -0 -0 0 0 0 0 0 0 0 0 0 0 0 0 0:1.62124 1:3 2:2.67907 3:13.7071 4:138.952 5:-0.333333 6:-2.5 7:-104.531 8:-613.264 9:-1000 10:0 11:895.469 12:3.54803 13:2 
-0 -0 -0 -0 -0 -0 -0 -0 0 0 0 0 0 3.8669677415374031e-05 0 0.00061652015820214774 0 0.00022264875039350437 0 0 0:1.17078 1:3 2:2.75932 3:12.6806 4:137.001 5:-8.5 6:0.25 7:-118.492 8:-825.853 9:-1000 10:-22.4417 11:881.508 12:28.2765 13:5 
-0 -0 -0 -0 -0 -0 -0 -0 0 0 0 0.19172572888258857 0 0 0 0 0 0 0 0 0:1.34268 1:3 2:2.74106 3:13.2277 4:135.913 5:-12 6:0 7:-0.454133 8:-652.134 9:-999.546 10:-92.6431 11:999.546 12:92.6431 13:5 
-0.00037728110986743544 -2.2900958638062862e-06 -1.9438094884972855e-06 -0 -0 -6.3954011772686273e-06 -0 -4.7491338060987945e-06 5.0928487220314106e-06 0.0073445878468323773 2.251859697265468e-06 0 9.917904587610218e-06 0 9.0826824157348525e-06 0 3.3011068926737504e-06 0 3.0103421556422478e-06 1.9239831567731974e-05 0:1.35164 1:3 2:3.06365 3:13.3662 4:122.644 5:-0.125 6:-1 7:-192.445 8:-733.428 9:-910.549 10:0 11:807.555 12:6.41483 13:2 
-0.072913719304656288 -0 -0 -0 -0 -0 -0 -0 0 0 0 0 0 0 0 0 0 0 0 0 0:1.46994 1:3 2:2.88105 3:14.2797 4:139.746 5:2.5 6:0.5 7:0 8:-565.099 9:-1000 10:-152.352 11:1000 12:115.201 13:3 
-0 -6.4116315778045824e-06 -0 -8.1527794890887419e-07 -0 -0 -0 -8.107278314525286e-06 0 0 2.8485608109585684e-08 0.089331393855342348 0 0 0 0 0 0 2.5849645164436846e-06 0 0:1.54386 1:3 2:3.24501 3:17.3832 4:125.975 5:-0.142857 6:-1 7:-15.2972 8:-488.636 9:-991.696 10:-148.164 11:984.703 12:159.091 13:1 
-0 -0 -0 -0 -0 -0 -5.3036004405065016e-05 -0 0 0 1.5802657046938528e-06 0 0 0 0 0 0 0 0 0 0:1.35289 1:3 2:2.75593 3:12.4179 4:134.925 5:-2 6:0.2 7:-1.02424 8:-631.273 9:-997.952 10:-167.975 11:998.976 12:107.887 13:3 
-0 -0 -0 -0 -0 -0.00027337929791010216 -1.0771232821251436e-05 -0 1.2949118721027033e-06 0.003277601777371123 0 0.50834542258839288 0 0 0 0.00030587604420745585 0 0 0 0 0:1.07896 1:3 2:2.74556 3:13.7626 4:137.175 5:-0.333333 6:-0 7:-17.2202 8:-902.214 9:-998.77 10:-48.5855 11:982.78 12:24.6002 13:5 
-0 -0 -0 -0 -0 -0 -7.4054762488528071e-06 -0 0 0 0 0 0 7.5873676346911172e-05 0 1.9006880762385968e-05 0 0.00013757815619712757 0 0 0:1.45704 1:3 2:3.224 3:15.0862 4:135.322 5:-6 6:0 7:-132.075 8:-671.58 9:-979.953 10:-145.047 11:867.925 12:14.7406 13:6 
-0.036841136026283632 -0 -0 -0 -0 -0 -0 -0 0 0.032483014335985071 0 0.63112447462678134 0 0 0 0 0 0 0 0 0:1.53244 1:3 2:2.80325 3:13.229 4:109.208 5:-0.8 6:-0.833333 7:-26.8456 8:-558.08 9:-1000 10:-168.818 11:973.154 12:94.476 13:3 
-0 -0 -0 -0 -0.005631291436170009 -0 -0 -0 0 0.00053672003640142915 0 0.26405412902957154 0 0 0 0 0 0 0 0 0:1.7162 1:3 2:2.84509 3:17.8761 4:122.823 5:-3 6:0.4 7:-13.0412 8:-570.683 9:-995.827 10:-4.17319 11:986.959 12:11.9979 13:6 
-0 -0 -0.00010315865223906547 -9.2099836364078195e-07 -1.0952277152169459e-06 -0 -0 -0 -0 0 0 0 0 0 0 0 0 0 2.5699507166600296e-06 0 0:1.55287 1:3 2:6.38019 3:26.098 4:109.894 5:1.5 6:0.478261 7:-112.888 8:-641.225 9:-154.022 10:0 11:887.112 12:2.74223 13:5 
-0 -9.8115416819038342e-05 -0.0016550102247280406 -0 -0 -0 -0 -1.3122488979734806e-05 -0 0 0 0 0 0 0 0 0 0 1.1271866306943595e-05 0 0:1.46861 1:3 2:6.32477 3:24.7659 4:108.699 5:3 6:0.5625 7:0 8:-632.878 9:-144.998 10:0 11:1000 12:48.0388 13:4 
-4.5906425409907578e-06 -0 -0 -0 -3.4389789341479204e-06 -5.034904880431797e-05 -5.7181568999704492e-06 -1.6388048610853549e-05 -6.3877605941341133e-06 7.7570566012306372e-06 1.2627669853379289e-05 8.1392771241470802e-06 2.371976633005209e-05 9.5817620906452576e-06 5.5976629074574185e-05 1.1264178212150938e-05 0 1.0209126948887082e-05 0.00022757802101530528 1.6200478870701804e-05 0:1.05738 1:3 2:4.88452 3:20.6005 4:107.799 5:2 6:0.857143 7:-110.465 8:-929.264 9:-401.163 10:-73.6434 11:889.535 12:16.4729 13:1 
-0 -0 -0 -0 -0 -0 -0 -0 -0 0 4.080242531559407e-05 0 0 0 0 0 8.4536862097105188e-05 0 0 0 0:0.978667 1:3 2:4.88042 3:24.0657 4:108.7 5:10 6:0.888889 7:-76.2667 8:-991.467 9:0 10:0 11:902.4 12:8.53333 13:5 
-0 -0 -0 -0 -0 -0 -0 -0 -0 0 0 0 0 0 0 0 4.7782915149987851e-05 0 0 0 0:1.09375 1:3 2:5.93734 3:23.6483 4:106.078 5:0 6:0.578947 7:-0.492611 8:-779.803 9:-72.9064 10:0 11:999.507 12:134.483 13:4 
-2.7379190489621315e-07 -0 -0 -0 -0 -0 -0 -2.4842225824504973e-06 -0 0 0 0 0 0 0 0 0 0 0 0 0:1.16851 1:3 2:5.75027 3:22.6498 4:105.455 5:16 6:1.08333 7:0 8:-736.17 9:-210.402 10:0 11:1000 12:119.622 13:4 
-0 -0 -0 -0 -0 -0 -0 -0 -0 0 0 0 0 0 0 0 0 0 0.00020664699775982157 0 0:1.09914 1:3 2:5.67892 3:21.5181 4:104.981 5:-1 6:0.888889 7:-0.975134 8:-772.306 9:-103.852 10:0 11:999.025 12:137.494 13:6 
-0 -0 -0 -0 -0 -0 -0 -0 -0 0 1.4071307360311783e-05 0 7.8593357698505591e-07 0 0 0 9.3356762992844773e-05 0 0 0 0:1.1532 1:3 2:4.93417 3:20.9341 4:110.324 5:2 6:0 7:-145.671 8:-851.122 9:0 10:0 11:854.329 12:16.033 13:3 
-0 -0 -0 -0 -0 -0 -0 -2.7495445242367142e-06 -0 -0 0 0 0 0 0 0 0 0 0 0 0:1.83961 1:3 2:3.58202 3:25.0588 4:91.4897 5:-0.8 6:-1 7:-20.4859 8:-457.361 9:-1000 10:-137.685 11:979.514 12:86.2315 13:7 
-0 -0 -0 -0 -0.00031491906929535671 -0 -0 -0 -0 -0 0 0 0 0 0 0 0 0 0 0 0:1.92203 1:3 2:3.16707 3:20.5968 4:100.053 5:12 6:-0.75 7:-47.619 8:-487.654 9:-1000 10:-85.9788 11:952.381 12:32.6279 13:3 
-0 -0 -0 -0 -0 -1.287335958324044e-05 -0 -0 -0 -0 0 0 0 0 0 0 0 0 0 0 0:1.43403 1:3 2:3.64037 3:24.3395 4:99.9402 5:14 6:-0 7:-67.1913 8:-649.516 9:-993.947 10:0 11:932.809 12:47.8208 13:7 
-0 -0 -0 -0 -0 -2.7957016206195071e-05 -0 -0 -0 -0 0 0.046394076137719321 0 0 0 0 0 0 0 0 0:1.28355 1:3 2:3.42227 3:18.5762 4:111.94 5:0.5 6:2 7:-41.6926 8:-701.307 9:-999.378 10:-136.901 11:958.307 12:77.7847 13:4 
-0 -0 -0 -0 -0 -0 -0 -0 -0.013566856409862793 -0 0 0 0 0 0 0 0 0 0 0 0:1.72693 1:3 2:3.00205 3:18.3384 4:110.79 5:-0.428571 6:-0 7:0 8:-554.735 9:-1000 10:-132.493 11:1000 12:24.3267 13:5 
-0 -0 -0 -0 -0 -0 -0 -0 -0.014889099280174218 -0 0 0.031541660253467961 0 0 0 0.00017913664523134295 0 0 0 0 0:1.40859 1:3 2:2.98757 3:17.0291 4:110.826 5:0.285714 6:-0 7:0 8:-620.944 9:-1000 10:-25.5654 11:1000 12:88.9872 13:7 
-0 -0 -0 -0 -0 -0 -0.00014329212857063319 -0 -0 -0 0 0 0 0 0 0.00010134394492050197 0 0.00022419430947719494 0 0 0:1.23049 1:3 2:3.4769 3:18.0052 4:106.669 5:-0.25 6:1 7:-18.981 8:-709.291 9:-999.5 10:-210.29 11:981.019 12:103.397 13:2 
-0 -0 -0 -0 -0 -0 -0 -0 -0 -0 0 0.021385543965717142 0 4.3572281136085551e-05 0 0 0 0.00020193620100647102 0 0 0:1.39849 1:3 2:3.52214 3:19.5701 4:105.178 5:-1.4 6:0 7:-142.921 8:-715.056 9:-999.551 10:-87.191 11:857.079 12:0 13:4 
-0 -0 -1.0320570099459821e-06 -0 -0.00057538488938054715 -0 -0 -0 -0 -0 0 0 0 0 0 0 0 0 0 0 0:1.66974 1:3 2:3.52367 3:25.2484 4:110.959 5:0.318182 6:-0.333333 7:-18.0723 8:-573.795 9:-961.345 10:-1.00402 11:981.928 12:25.1004 13:7 
-0.0006049905354404523 -1.3152720948434492e-05 -4.1657875448853855e-06 -8.8380103534619577e-07 -0 -0 -0 -1.7831909225042941e-05 -0.0035334182726549884 -7.7570566012306372e-06 6.1102660645389081e-06 0 1.0225480139185935e-05 0 1.096831360932381e-05 0 3.8318504596909676e-06 3.5847050602536488e-05 8.210502294005225e-06 1.4206298006624409e-05 0:1.32871 1:3 2:4.45744 3:18.0068 4:113.6 5:0.125 6:-0 7:-152.089 8:-674.282 9:-817.232 10:-184.726 11:847.911 12:78.329 13:6 
-0.0021198599203075628 -0 -0 -0 -0 -0 -0 -0 -0 -0 0 0 0 0 0 0 0 0 0 0 0:1.52818 1:3 2:3.80021 3:22.4384 4:103.333 5:0.5 6:-0.5 7:-58.125 8:-529.375 9:-994.375 10:-155 11:941.875 12:125 13:3 
-0.0036302703696092908 -0 -0 -0 -0 -0 -0 -0 -0.011652550033898167 -0 0 0.00099990613305177018 0 0.00029042466635221837 0 0.00020937394505974889 0 5.7465087825057217e-06 0 0 0:1.31001 1:3 2:4.09781 3:19.3978 4:104.262 5:0.3125 6:-2 7:-155.125 8:-655.323 9:-998.021 10:-241.393 11:844.875 12:108.033 13:0 
-0.0023280233086702554 -0 -0 -0 -0 -0 -0 -0 -0 -0 0 0 0 0 0 0 0 0 0 0 0:1.76265 1:3 2:3.50675 3:19.1275 4:92.6324 5:-1.14286 6:-0.5 7:-100.993 8:-495.033 9:-982.34 10:-169.978 11:899.007 12:72.2958 13:5 
-0 -0 -0 -0 -0 -5.9482092711170493e-06 -0 -0 -0 -0 -0 0 1.2169685695548434e-05 8.1587014875833367e-06 3.0494042874707836e-05 2.7456897759488146e-06 0 1.6509060168768379e-06 0 3.8488131795450309e-06 0:0.751733 1:3 2:5.22258 3:17.66 4:88.6288 5:2 6:0.571429 7:-51.0397 8:-967.234 9:-218.021 10:-289.855 11:700.693 12:32.7662 13:6 
-0 -0 -2.306190125744344e-05 -0 -0 -3.9623238907469893e-06 -0 -0 -0 -0 -0 0 0 0 1.565896367635911e-06 0 0 0 0.00034756919589256708 0 0:0.851936 1:3 2:6.24203 3:18.9988 4:97.8122 5:-1.4 6:11 7:-17.4639 8:-795.748 9:-212.604 10:-181.473 11:834.472 12:204.252 13:4 
-0 -0 -0 -0 -0 -0 -0 -0 -0 -6.7501402529285121e-05 -0 0 0 0 0 0 5.4503983774109189e-05 0 4.4033375708805223e-05 0 0:0.858497 1:3 2:4.96856 3:18.9861 4:99.3123 5:-3 6:4 7:-56.8928 8:-962.801 9:-51.787 10:-150.255 11:801.605 12:37.1991 13:7 
-0 -0 -0 -0 -0 -0 -0 -0 -0 -0 -0 0 1.2815477892039951e-05 0 0 0 0.00013432633406724204 0 0 0 0:0.622055 1:3 2:3.68157 3:15.7304 4:102.783 5:-7 6:-1.75 7:-9.02256 8:-902.757 9:0 10:-53.1328 11:613.033 12:97.2431 13:5 
-0 -0 -0 -2.6247572846956131e-07 -0 -0 -0 -0 -0 -0 -0 0 0 0 0 0 0 0 0 0 0:0.612653 1:3 2:5.1356 3:18.4671 4:86.6875 5:0.357143 6:-0 7:-46.4816 8:-840.542 9:-67.7857 10:-185.926 11:566.172 12:159.458 13:6 
-8.3441319054628318e-06 -0.00010490537845439083 -0 -1.0833240000042427e-06 -3.6082655783519283e-06 -0 -4.8912488351951395e-06 -2.381301969175305e-05 -3.860611010068906e-06 -0 -6.1102660645389081e-06 5.190951514415208e-06 -0 8.9160611335895119e-07 0 2.9944640314978575e-06 0 4.294733673895497e-06 0 2.5908592630848352e-06 0:0.867448 1:3 2:8.01443 3:21.7872 4:85.883 5:0.428571 6:0.375 7:-27.127 8:-757.09 9:-301.48 10:-289.149 11:840.321 12:242.91 13:5 
-0 -0 -0 -0 -0 -0.00083315246484765807 -8.2035237674815445e-08 -0 -0 -0 -0 -0 0 4.8083466050771929e-05 0 0.03428311615483811 0 0.00019266417663700439 0 0 0:0.980881 1:3 2:3.23429 3:18.5908 4:116.411 5:1.66667 6:-2 7:-32.419 8:-1000 9:-980.05 10:-80.6318 11:948.462 12:0 13:4 
-0 -0 -0 -0 -0 -0.00013558138798208243 -0 -0 -0.13268465116891442 -0 -0 -0 0 0 0 0 0 0 0 0 0:1.20755 1:3 2:2.81938 3:15.6385 4:124.368 5:0 6:-3.33333 7:-12.3698 8:-808.594 9:-1000 10:0 11:987.63 12:19.5313 13:4 
-0 -0 -0 -0 -0 -0 -0 -0 -0 -0 -0 -0 1.0591882184541786e-06 8.463196298392666e-05 0 0.027329937971296053 0 0.00036018882504638305 0 1.1201082736131672e-05 0:1.02718 1:3 2:3.46441 3:17.0377 4:111.002 5:-3.33333 6:-0 7:-196.887 8:-877.043 9:-988.327 10:-7.7821 11:803.113 12:96.4981 13:5 
-0 -7.1434907479943285e-06 -4.5615974171535585e-06 -0 -0 -0.002205006887670574 -0 -2.8457699424646471e-06 -0.013705463147464778 -8.1392771241470802e-06 -4.1000638812193797e-05 -5.190951514415208e-06 1.0636888129715403e-05 0 8.6753230033895304e-06 0 4.0870321872798791e-06 0 7.7223374965749238e-06 4.179956696116851e-06 0:0.935419 1:3 2:3.52274 3:17.6603 4:116.542 5:-6.66667 6:0 7:-23.2089 8:-816.347 9:-838.547 10:0 11:912.21 12:183.653 13:3 
-0 -0 -0 -0 -0 -0 -0 -0 -0 -0 -0 -0 0 0 0 0.02266972867391082 0 0 0 0 0:1.21061 1:3 2:2.84497 3:13.3614 4:127.746 5:-0.5 6:0.25 7:-6.25782 8:-704.005 9:-1000 10:-90.7384 11:993.742 12:122.028 13:3 
-0.0013703170511264987 -0 -0 -0 -1.3019294682195429e-05 -0 -3.6744876303789202e-05 -0 -1 -0 -0.068333500074070144 -0 0 0 0 0 0 0 0 0 0:1.41511 1:3 2:2.75475 3:13.2266 4:123.054 5:-0.5 6:1.33333 7:-4.40286 8:-625.757 9:-1000 10:-135.388 11:995.597 12:80.9026 13:5 
-0 -0 -0 -0 -0 -0.00147417373837426 -0 -0 -0 -0 -0 -0 0 0 0 0 0 0 0 0 0:0.96015 1:3 2:3.22471 3:16.8124 4:107.281 5:8 6:-0.666667 7:-75.9398 8:-898.496 9:-939.098 10:0 11:884.211 12:101.504 13:4 
-0 -0 -0 -0 -0 -0 -0 -0 -0.11740037900678738 -0 -0 -0 0 5.1240102012394826e-05 0 0.022379795064332953 0 0.00049545975601989378 0 0 0:1.28119 1:3 2:3.36309 3:15.1216 4:126.93 5:0 6:-0.0769231 7:-152.77 8:-680.473 9:-1000 10:-109.736 11:847.23 12:100.054 13:5 
-0 -0 -0 -0 -0 -0 -0 -0 -0 -0 -0.031946685777073942 -0 0 0 0 0 0 0 0 0 0:1.21486 1:3 2:3.19879 3:16.7308 4:86.3084 5:-1.77778 6:-0.6 7:-151.874 8:-791.584 9:-1000 10:0 11:848.126 12:31.5582 13:1 
-0 -0 -0 -0 -4.488230303824611e-05 -0 -0 -0 -0.49237877233468302 -0 -0 -0 0 0 0 0 0 0 0 0 0:1.35444 1:3 2:2.93082 3:16.7575 4:124.417 5:-7 6:-0.125 7:-12.3377 8:-716.234 9:-1000 10:-34.4156 11:987.662 12:22.0779 13:3 
-0 -0 -0 -0 -0 -0 -2.9610524627644264e-05 -0 -0 -0 -0 -0 0 0 0 0 0 0 0 0 0:1.08803 1:3 2:2.54614 3:10.139 4:111.531 5:1 6:-2 7:-19.6386 8:-820.896 9:-999.214 10:-129.615 11:980.361 12:98.1932 13:3 
-0.00017218774848200242 -2.9584494938547284e-06 -0 -8.7799448488029329e-07 -2.1518187853023142e-05 -0 -0 -1.0337283474745811e-05 -0 -0 -0 -0 0 0 0 0 0 0 0 0 0:1.31851 1:3 2:3.47409 3:14.2498 4:103.167 5:-2 6:-0.333333 7:-131.665 8:-524.483 9:-988.03 10:-121.872 11:868.335 12:233.95 13:3 
-0 -0 -0 -0 -0 -0.0001956575701268077 -2.1451985774775204e-06 -0 -3.1139601080996597e-06 -0 -0 -0 -0 1.6684577154859368e-05 0 2.9464341372865727e-05 0 9.8732766313118449e-06 0 2.2687931621325201e-05 0:0.675931 1:3 2:3.33537 3:19.9601 4:105.865 5:-7 6:0 7:-112.84 8:-983.88 9:-607.56 10:0 11:563.091 12:16.1201 13:2 
-0 -0 -0 -0 -0 -0 -0 -0 -0 -0 -0 -0 -0 0 6.8935713165075514e-05 0 0 0 0 0 0:0.675011 1:3 2:3.57804 3:17.4389 4:103.731 5:-1.75 6:2 7:-109.461 8:-878.659 9:-493.424 10:0 11:565.549 12:121.341 13:5 
-7.3020773006648914e-06 -8.0111048243148099e-06 -1.5306351140184724e-06 -4.3583458317447466e-07 -5.7567997120597687e-06 -1.3105567985954882e-05 -3.6563412546093254e-06 -1.2050162102937628e-05 -6.8039444795105596e-06 -2.5700467387474446e-06 -1.0225480139185935e-05 -0 -1.1696076348169582e-05 0 0 1.6178534721108188e-05 0 1.4719330173954128e-05 0 1.0028879786670012e-05 0:0.688811 1:3 2:3.77475 3:19.8397 4:98.2009 5:-0.666667 6:11 7:-78.9211 8:-849.65 9:-565.934 10:0 11:609.89 12:150.35 13:4 
-0 -0 -1.7646688717322853e-06 -0 -0 -0 -0 -0 -0 -0 -0 -2.498516358758838e-05 -0 0 0 0 2.5172762140610546e-05 0 0 0 0:0.582192 1:3 2:3.04707 3:17.0222 4:106.382 5:-0.375 6:-0.333333 7:-22.2603 8:-997.86 9:-291.524 10:-0.428082 11:559.932 12:2.14041 13:7 
-0 -0 -3.3726743421317342e-06 -0 -0 -7.4387805301412093e-05 -0 -0 -0 -2.1935653168289704e-05 -0 -0 -0 0 3.1202222533207136e-05 0 3.4617884693154635e-06 0 1.3759573783781471e-05 0 0:0.651212 1:3 2:3.16229 3:16.9932 4:104.321 5:-3 6:-10 7:-17.9136 8:-984.194 9:-389.357 10:0 11:633.298 12:15.8061 13:4 
-0 -0 -0 -5.0020587312317586e-07 -0 -0 -0 -0 -0 -0 -0 -0 -0 0 0 0 0 0 0 0 0:0.667745 1:3 2:3.64552 3:16.9578 4:99.4309 5:0.366667 6:-3 7:-199.63 8:-890.018 9:-511.553 10:-21.2569 11:468.115 12:109.982 13:4 
-0 -0 -4.7234513386949478e-08 -0 -0 -0 -0 -0 -0 -5.0257869795460513e-06 -0 -9.0503076009422861e-06 -0 -0 2.1753148529938758e-05 0 4.6141425721562347e-06 0 2.6086885918537591e-06 4.0593035079917963e-06 0:0.817092 1:3 2:5.14459 3:18.3801 4:102.828 5:-1 6:-2.125 7:-180.302 8:-996.873 9:-648.775 10:-406.983 11:636.79 12:3.12663 13:4 
-0 -0 -0 -3.1611713211710514e-07 -0 -0 -0 -0 -0 -0 -0 -0 -0 -1.003737746064864e-05 0 0 0 0 0 3.3766257857913624e-06 0:0.659606 1:3 2:4.51531 3:17.782 4:104.476 5:-1 6:-1.44444 7:-166.502 8:-997.044 9:-639.901 10:-404.433 11:493.103 12:2.95567 13:4 
-0 -1.7775372012011733e-05 -0 -0 -0 -0 -0 -0 -0 -0 -0 -0 -0 -0 0 0 0 0 0 0 0:0.863563 1:3 2:5.16036 3:21.1728 4:99.619 5:0.142857 6:-8 7:-73.0915 8:-912.832 9:-766.107 10:-458.581 11:790.471 12:87.1684 13:2 
-0 -0 -0 -0 -0 -0 -0.00028497620627026469 -0 -0 -0 -0 -0 -0 -0 0 0 0 0 0 0 0:0.904505 1:3 2:4.19703 3:15.8261 4:110.663 5:-0.5 6:-5 7:-109.207 8:-986.288 9:-892.262 10:-539.667 11:795.299 12:13.712 13:7 
-0.00011750711938395143 -0 -0 -0 -0 -0 -0.00039609510839251768 -0 -0 -0 -0.00026315476290564836 -0 -0 -0 0 0 0 0 0 0 0:1.26414 1:3 2:3.20302 3:11.4988 4:102.037 5:0.266667 6:-2.5 7:-172.593 8:-716.74 9:-1000 10:-267.279 11:827.407 12:74.3108 13:7 
-0 -0 -0 -0 -1.6718558590193928e-05 -0 -0 -0 -8.3296886570329083e-05 -0 -7.0842184582655581e-05 -0 -1.6526136918531624e-05 -0 0 0 0 0 0 0 0:1.20268 1:3 2:3.45508 3:13.9921 4:121.381 5:-0.666667 6:0 7:-174.104 8:-750.598 9:-998.805 10:-207.968 11:825.896 12:80.8765 13:2 
-0 -0 -0 -6.6329511920428798e-07 -0 -0 -0 -0 -0 -0 -0 -0 -0 -0 0 0 0 0 0 0 0:0.81741 1:3 2:5.35403 3:20.1535 4:97.5468 5:-1.8 6:-1.11111 7:-80.1486 8:-943.206 9:-768.577 10:-625.796 11:737.261 12:56.7941 13:8 
-0 -0 -0 -0 -0 -3.7295014408829803e-05 -0.00010615647495580344 -0 -3.1246467191956114e-05 -0 -0 -0 -0.00015301297639950997 -6.6471996942107304e-06 3.1380562334658618e-06 0.00040173866045298945 0 0.013411138588844559 0 1.1699780302346526e-05 0:1.11722 1:3 2:3.42036 3:16.5941 4:97.0638 5:-0.444444 6:0 7:-191.272 8:-886.722 9:-1000 10:-102.136 11:808.728 12:8.35655 13:2 
-1.114487867342057e-05 -0 -3.6572781017038105e-06 -0 -0 -1.1328978804186884e-05 -0 -1.0229196428213157e-05 -0 -4.5559751110992072e-06 -0 -0 -1.4416417729051852e-05 -0 0 8.0983534943619072e-05 1.6974034207826177e-07 0.00038806750759302016 6.1351489734245037e-06 0 0:1.0123 1:3 2:4.33493 3:16.3449 4:98.6849 5:-1.90909 6:0 7:-95.1417 8:-853.239 9:-832.49 10:-291.498 11:904.858 12:134.615 13:4 
-0 -0 -0 -0 -0 -5.2184632639927412e-07 -0 -0 -0 -3.858095175617909e-05 -0 -2.9614712180703362e-05 -0 -0 -0 0 0 0 6.2816899333661683e-06 0 0:0.829619 1:3 2:4.23371 3:17.4316 4:103.543 5:-0.333333 6:-1.66667 7:-116.463 8:-992.092 9:-405.464 10:-141.625 11:713.156 12:7.90798 13:2 
-0 -0 -0 -0 -0 -0 -7.5253957669872964e-07 -0 -0 -0 -0 -0 -2.4395750256451232e-07 -0 -5.9073522872232726e-06 1.1499176870014543e-05 0 2.8231547448255493e-06 0 2.2610972510133905e-05 0:1.07347 1:3 2:4.99594 3:17.6698 4:100.795 5:0 6:-18 7:-409.302 8:-929.568 9:-588.704 10:-137.542 11:590.698 12:1.99336 13:5 
-0 -0 -0 -0 -0 -1.6085036601252027e-05 -3.0035550647019955e-06 -0 -0 -0 -0 -0 -0 -0 -1.8983852476181349e-05 1.4220386613744181e-06 0 5.4614375366780437e-06 0 0 0:0.881879 1:3 2:4.42429 3:16.4398 4:102.291 5:5 6:-10 7:-189.933 8:-983.893 9:-480.537 10:-173.826 11:691.946 12:16.1074 13:4 
-0 -0 -0 -0 -0 -0 -0 -0 -0 -2.71774604102536e-06 -0 -0 -0 -0 -0 0 0 0 0 0 0:1.01017 1:3 2:5.00509 3:18.2308 4:90.4157 5:-5.75 6:-2.25 7:-278.936 8:-925.234 9:-451.474 10:-94.1769 11:721.064 12:64.7017 13:4 
-0 -0 -0 -0 -0 -0 -0 -0 -0 -0 -0 -0 -0 -0 -0 0 0 0 0 4.0685391439883734e-06 0:0.966187 1:3 2:4.48526 3:18.6627 4:98.6717 5:-1.33333 6:-3.33333 7:-294.928 8:-996.869 9:-462.743 10:-65.1221 11:671.259 12:3.13087 13:3 
-7.5695168214670862e-06 -0 -0 -0 -4.1866640567556264e-06 -0 -2.9562915544717461e-06 -4.8099349097289699e-06 -8.3970883092709907e-06 -0 -8.798734879341268e-06 -0 -0 -0 -0 0 0 0 0 1.1846638566392023e-05 0:1.19448 1:3 2:5.41672 3:18.0581 4:97.7694 5:-4 6:-2.5 7:-331.713 8:-824.423 9:-515.796 10:-130.62 11:668.287 12:12.7582 13:3 
-0 -0 -0 -0 -0 -0 -0 -0 -0 -0 -0 -2.4452270616403871e-06 -0 -2.2216870601681433e-05 -0 0 1.5347038213071959e-05 0 0 0 0:0.818692 1:3 2:4.34988 3:17.9674 4:104.289 5:-2 6:-6 7:-242.368 8:-1000 9:-330.841 10:-122.741 11:576.324 12:0 13:3 
-0 -1.2903002324879794e-05 -9.8018527759045944e-06 -9.7772887131145527e-07 -1.3384739443539489e-06 -2.4535716848271306e-05 -0 -1.2474049048890595e-05 -6.8559410646386293e-07 -1.4677931277369738e-05 -2.1695787299825423e-06 -0 -8.4313655008250178e-06 -7.792106509660122e-05 -0 9.9608466659380032e-06 1.6503342497653815e-05 6.7285192153273045e-06 1.7843476893301011e-05 1.5013260245222757e-05 0:0.820053 1:3 2:4.39005 3:17.6118 4:101.769 5:-2.5 6:-1.4 7:-120.844 8:-852.243 9:-424.802 10:-41.6887 11:699.208 12:147.757 13:8 
-0 -0 -0 -0 -0 -0.011490577527398666 -0 -0 -0 -0 -0 -0 -0 -0 -0 -0 0 0 0 0 0:0.869221 1:3 2:2.7047 3:12.6172 4:123.654 5:-1.14286 6:-0.2 7:-34.0633 8:-909.367 9:-869.221 10:-13.9903 11:835.158 12:90.6326 13:6 
-0 -0 -0 -0 -0 -0 -0 -0 -0 -0 -0 -0 -0.0035799032198749543 -0 -0 -0 0 0 0 0 0:0.865497 1:3 2:3.00633 3:13.4042 4:110.815 5:-2.28571 6:-0.1 7:-83.4662 8:-882.509 9:-865.497 10:-62.7326 11:782.031 12:117.491 13:4 
-0 -0 -0 -0 -0 -0 -0 -0 -0 -0 -0 -0 -0 -0 -3.0534103096902884e-05 -0 0 0 0 0 0:0.840989 1:3 2:3.02936 3:13.7826 4:122.048 5:-0.888889 6:0.333333 7:-127.208 8:-991.166 9:-840.989 10:-123.086 11:713.781 12:8.83392 13:6 
-0 -3.6227683905072611e-06 -3.1841923132829208e-06 -0 -0 -0.00049669317207460184 -0 -0 -0 -1.1264178212150938e-05 -0 -2.0970337186154871e-07 -0 -0 -0 -0 5.5586788240797692e-07 0 6.5849165942453424e-06 0 0:0.873829 1:3 2:3.32227 3:15.0537 4:121.65 5:-1.125 6:0.666667 7:-134.435 8:-912.397 9:-785.124 10:-35.8127 11:739.394 12:87.6033 13:2 
-0 -0 -0 -4.8980493477691975e-07 -0 -0 -0 -2.9602622542370315e-06 -0 -0 -0 -5.3921593367497585e-06 -0 -4.5642876093973905e-05 -0 -2.2882062197326966e-05 4.7141773318880714e-06 0 0 1.2967026816306247e-05 0:0.794559 1:3 2:3.17977 3:14.3887 4:121.88 5:-1.2 6:0.666667 7:-143.254 8:-915.047 9:-772.349 10:-57.7457 11:651.305 12:84.9528 13:2 
-0 -0 -0 -0 -0 -0 -0 -0 -0 -0 -0 -0 -0.0024245703765253847 -0 -0 -0 0 0 0 3.4986579463087207e-05 0:0.916779 1:3 2:3.26386 3:14.1589 4:115.287 5:-2 6:-0 7:-189.262 8:-959.06 9:-810.067 10:-46.3087 11:727.517 12:40.9396 13:4 
-0 -0 -0 -0 -0 -0.0054871529252934134 -0 -0 -0 -0 -0 -0 -0 -0 -0 -0 0 0.00064823473230129797 0 0 0:0.935417 1:3 2:2.91787 3:14.1099 4:116.291 5:-0.0833333 6:-0 7:-115.278 8:-936.806 9:-935.417 10:0 11:820.139 12:63.1944 13:3 
-0 -0 -0 -0 -0 -2.5115607120767264e-05 -0 -0 -0 -0 -0 -0 -0 -0 -0 -0 0 0 0 0 0:0.84142 1:3 2:2.85548 3:15.2884 4:120.225 5:-0.266667 6:0.4 7:-52.6627 8:-986.391 9:-841.42 10:-8.87574 11:788.757 12:13.6095 13:4 
-0 -0 -0 -0 -0 -0 -0 -0 -0 -0 -0 -0 -0 -0 -0.00021581269475788332 -0 0 0 0 0 0:1.09468 1:3 2:2.84686 3:12.5493 4:122.511 5:-0.333333 6:0.111111 7:-201.389 8:-893.939 9:-1000 10:-12.6263 11:798.611 12:19.5707 13:4 
-0 -0 -0 -0 -0 -0 -0 -0 -0 -0 -0 -1.3829109883536498e-07 -0 -0 -0 -0 0 0 0 0 0:0.833779 1:3 2:2.90523 3:12.341 4:126.822 5:1.33333 6:1 7:-78.5676 8:-923.036 9:-833.779 10:-117.584 11:755.211 12:76.9642 13:5 
-0 -0 -0 -0 -0 -0 -0 -0 -0 -0 -0 -0 -0 -0 -0 -0 0 0.00064736828742701931 0 0 0:1.08267 1:3 2:3.03801 3:14.1433 4:125.086 5:0.2 6:-1 7:-41.6008 8:-799.895 9:-997.894 10:-92.1538 11:958.399 12:123.749 13:5 
-0 -0 -0 -0 -0 -0 -0 -0 -0 -0 -0 -0 -0 -0 -7.419701774406904e-05 -0 0 0.0036606125773790358 0 0 0:0.908795 1:3 2:3.43125 3:15.1577 4:110.404 5:-2.28571 6:-0 7:-161.781 8:-904.995 9:-908.795 10:-122.693 11:747.014 12:95.0054 13:4 
-0 -0 -0 -0 -0 -0 -4.0540811849642127e-05 -0 -0 -0 -0 -0 -0 -0 -0.00015370552359387929 -0 0 0.0026803404629097342 0 0 0:0.97421 1:3 2:3.02713 3:12.223 4:122.47 5:-1 6:1 7:-67.6983 8:-885.88 9:-974.21 10:-194.713 11:906.512 12:114.12 13:1 
-0 -0 -0 -0 -0 -0 -0 -0 -0.00094140308317198986 -0 -1.2202702661504842e-05 -0 -0.084390440983321977 -0 -0 -0 0 0 0 0 0:1.08627 1:3 2:2.89011 3:13.3469 4:122.206 5:0 6:0 7:-95.624 8:-866.018 9:-999.46 10:-57.2663 11:904.376 12:54.5651 13:5 
-0.00021219146901853747 -4.8034039294372839e-06 -8.0519301142785232e-07 -3.1254993293705116e-07 -3.2258701522613527e-05 -0 -1.7940227323775317e-05 -7.3200966066007702e-06 -0 -0 -0.00047765183255008887 -0 -0.016267663284655558 -0 -8.4728562038740502e-06 -0 0 0 2.2118072172247905e-07 0 0:1.20887 1:3 2:2.89465 3:11.4815 4:126.119 5:1 6:-0.0625 7:-74.9235 8:-670.234 9:-1000 10:-143.221 11:925.076 12:156.983 13:4 
-3.9776063655384876e-06 -1.3768046143243822e-05 -0 -1.0063325190086759e-06 -2.9231528554587497e-06 -0 -2.3181402866738546e-06 -1.0586227128973161e-05 -3.2102170463851709e-07 -0 -2.5824275219506194e-06 -1.0566264349635628e-05 -4.0870321872798791e-06 -0 -0 -0 -0 1.2296139749929207e-06 7.1261224373203212e-05 0 0:0.798286 1:3 2:5.15 3:23.1761 4:93.1088 5:-3.57143 6:1.25 7:-33.7143 8:-826.286 9:-155.429 10:0 11:764.571 12:173.714 13:5 
-0 -0 -0 -0 -0 -0 -0 -0 -0 -0 -0 -0.00017826405349171564 -0 -0 -0 -0 -0 0 0 0 0:0.773774 1:3 2:4.43203 3:21.6483 4:91.4837 5:-1.85714 6:1.18182 7:-76.7868 8:-920.26 9:0 10:0 11:696.988 12:79.7401 13:4 
-0 -8.5649930185681118e-06 -0 -0 -0 -0 -0 -0 -0 -0.00022567654023993779 -0 -0 -0 -0 -0 -0 -0 0 0 0 0:0.904845 1:3 2:5.04054 3:22.896 4:93.6395 5:-3.5 6:1 7:-63.6311 8:-900.759 9:0 10:0 11:841.214 12:99.2411 13:5 
-0 -0 -3.2028847246852746e-05 -0 -0 -0 -0 -0 -0 -0 -0 -0 -0 -0 -0 -0 -0 0 0 0 0:0.850104 1:3 2:5.27904 3:23.2974 4:92.7793 5:-4.5 6:0.5 7:-72.0954 8:-841.286 9:-18.1535 10:0 11:778.008 12:158.714 13:2 
-0 -0 -0 -0 -0 -1.086007170784466e-05 -5.4133283055259475e-07 -0 -2.9800851880352333e-06 -0 -1.2494229377403484e-06 -0 -0 -2.8634550609926008e-05 -4.7838829142344965e-06 -3.1850380710725771e-05 -5.2700452142960476e-06 3.5019283470261402e-06 0 7.7632217637647174e-06 0:0.878932 1:3 2:4.94344 3:24.183 4:90.555 5:-1.71429 6:1.3 7:-143.62 8:-932.344 9:-166.172 10:0 11:735.312 12:67.6558 13:6 
-0 -8.7520995556151185e-06 -0 -0 -0 -0 -0 -0 -0 -0 -0 -0 -0 -0 -0 -0 -0 -0 7.23736903237106e-07 0 0:0.889644 1:3 2:3.12337 3:13.7206 4:98.1707 5:-2.6 6:-0 7:-27.1967 8:-839.958 9:-889.644 10:-127.615 11:862.448 12:160.042 13:4 
-0 -0 -0 -0 -0 -0 -0 -0 -0 -0 -0 -0 -0 -0 -0 -0 -0.0057076917313849578 -0 0 0 0:0.963084 1:3 2:3.55612 3:16.7146 4:101.948 5:-3.2 6:0.166667 7:-129.75 8:-916.938 9:-963.084 10:-156.352 11:833.333 12:83.0619 13:3 
-0 -0 -2.2468933075343554e-06 -8.0714806924681074e-07 -1.615457187348498e-06 -7.1549981828277048e-05 -0 -8.7039286100426879e-06 -3.5201892219236295e-05 -0 -1.7648339209249446e-05 -0 -0.0002228947881201514 -0 -0 -0 -0.0013628097512301738 -0 0 0 0:0.878356 1:3 2:3.8346 3:20.5418 4:98.2631 5:-1.4 6:-0 7:-54.7945 8:-803.288 9:-878.356 10:-62.4658 11:823.562 12:196.712 13:3 
-0 -0 -0 -0 -0 -0 -0 -0 -0 -0 -0 -0 -0 -0 -0.0049505831422667589 -0 -0 -0 0 0 0:1.1203 1:3 2:3.74215 3:18.8837 4:84.9994 5:4.66667 6:-1 7:-225.747 8:-868.212 9:-998.78 10:-89.6888 11:774.253 12:24.4051 13:4 
-0 -0 -0 -0 -0 -0 -0 -0 -0 -0 -0 -0 -0.00013931256152479831 -0 -0 -0 -0 -0 0 0 0:1.00784 1:3 2:4.07434 3:18.8925 4:89.5185 5:1.5 6:0.25 7:-226.675 8:-825.359 9:-995.813 10:-92.1053 11:773.325 12:166.866 13:3 
-0 -0 -0 -0 -0 -0 -0 -0 -0 -0 -0 -0 -0 -0 -1.0187333344021717e-05 -0 -0 -0 0 0 0:1.06246 1:3 2:3.67192 3:17.9355 4:92.5488 5:-2 6:0.5 7:-160.959 8:-890.411 9:-1000 10:-150.114 11:839.041 12:50.7991 13:3 
-0 -0 -0 -0 -0 -6.60585925503278e-06 -0 -0 -0 -0 -0 -0 -0 -0 -0.004352453050459182 -0 -0 -0 0 0 0:0.992661 1:3 2:3.76631 3:20.5833 4:90.7545 5:-2 6:2 7:-149.847 8:-980.428 9:-992.049 10:-125.382 11:842.813 12:19.5719 13:6 
-0 -0 -0 -0 -0 -0 -0 -0 -0.00027373952613630526 -0 -0 -0 -0.00068610540805833192 -0 -0.0040990672827642153 -0 -0.00023949681573756209 -0 0 0 0:1.22122 1:3 2:3.50448 3:18.18 4:99.1732 5:4 6:0.142857 7:-157.978 8:-809.373 9:-1000 10:-100.053 11:842.022 12:9.47867 13:2 
-0 -0 -0 -0 -0 -7.0056883562893689e-05 -0 -0 -0 -0 -0 -0 -0 -0 -0 -0 -0 -0 0 0 0:0.92833 1:3 2:3.85414 3:20.5425 4:93.0962 5:0 6:-0.2 7:-191.874 8:-941.309 9:-921.558 10:-74.4921 11:736.456 12:58.6907 13:2 
-7.7285901234926466e-05 -0 -0 -0 -1.9281682677367074e-05 -0 -8.7332540554693478e-05 -8.5942544481292447e-07 -5.128548823509046e-05 -0 -0.00045007573065945875 -0 -0 -0 -0 -0 -0 -0 0 0 0:1.23511 1:3 2:3.29107 3:15.2338 4:74.5963 5:-2 6:0 7:-91.3706 8:-759.391 9:-987.31 10:-179.695 11:908.629 12:50.2538 13:3 
-0 -2.4558401148523262e-07 -1.7255019913092174e-06 -0 -0 -0.0001136926821244516 -0 -1.3925447829068331e-07 -0 -1.0209126948887082e-05 -0 -5.9456396907723349e-06 -0 -2.4592606805265972e-05 -0 -1.5013111496830897e-05 -0.00032655776166438727 -4.7315423220190611e-06 6.3016776141648255e-06 1.8436587511462363e-05 0:0.805195 1:3 2:3.07182 3:14.1481 4:89.1172 5:0.8 6:-0.125 7:-63.2035 8:-899.134 9:-805.195 10:-88.7446 11:741.991 12:100.866 13:3 
-0 -0 -0 -0 -0 -0 -0 -0 -0 -0 -0 -0 -0 -0 -0.0003869152876033921 -0 -0 -0 0 1.3101091925972367e-05 0:1.12809 1:3 2:3.89172 3:18.5007 4:85.0585 5:-0.666667 6:1 7:-364.235 8:-857.378 9:-953.922 10:0 11:635.765 12:29.073 13:5 
-0 -0.00032868590237856039 -3.5890840004936266e-05 -0 -0 -0 -3.1375869223846978e-06 -0.00012449679833628936 -0 -0 -0 -0 -0 -0 -0 -0 -0 -0 -0 0 0:1.38289 1:3 2:6.55303 3:19.8048 4:70.7678 5:-1.4 6:-5.33333 7:-29.8899 8:-631.358 9:-340.85 10:-144.73 11:970.11 12:91.7672 13:5 
-0 -0.00043293622545311655 -0 -0 -0 -0 -0 -0 -0 -0 -0 -7.2928487946177336e-05 -0 -0 -0 -0 -0 -0 -0 0 0:1.11189 1:3 2:8.44009 3:21.4285 4:93.2161 5:-1.22222 6:-20 7:-54.4304 8:-820.886 9:-188.608 10:-318.354 11:945.57 12:78.481 13:5 
-0 -0 -0 -0 -0 -0 -0 -0 -0 -0 -0 -0 -0 -0 -0 -1.2689218669247414e-05 -0 -0 -0 7.2853869378751029e-06 0:1.0915 1:3 2:6.25868 3:20.587 4:93.5096 5:-0.285714 6:-2.5 7:-64.2093 8:-820.452 9:-297.86 10:-167.063 11:935.791 12:95.7194 13:5 
-0 -0 -8.4833875383655289e-06 -0 -0 -0 -0 -0 -0 -0.00033699747673432054 -0 -0 -0 -0 -0 -2.3038929472276846e-06 -0 -0 -0 0 0:1.08184 1:3 2:5.71375 3:19.8037 4:84.6206 5:-0.357143 6:-1.1 7:-69.341 8:-805.731 9:-261.318 10:-81.9484 11:930.659 12:118.625 13:8 
-0 -0.00016220240164058813 -0 -0 -0 -0 -0 -0 -0 -0 -0 -0 -0 -0 -0 -0 -0 -0 -0 0 0:1.08483 1:3 2:5.99543 3:17.3481 4:87.376 5:-3.33333 6:3 7:-23.1278 8:-729.075 9:-332.599 10:-138.216 11:976.872 12:192.731 13:6 
-0 -0 -0 -0 -0 -1.5583131743540974e-06 -0 -0 -0 -0 -0 -0 -0 -0 -0 -0 -0 -0 -0 0 0:1.04579 1:3 2:5.60826 3:19.0192 4:92.9405 5:-0.7 6:-3.25 7:-26.6272 8:-836.686 9:-316.568 10:-133.728 11:973.373 12:119.527 13:5 
-9.841437980501416e-06 -0 -6.0321201475887867e-06 -0 -6.1071356959604243e-06 -0 -0 -5.2579340560037269e-05 -5.5953066720859324e-06 -0 -6.2156059003198185e-06 -0 -6.6687679001568582e-06 -0 -0 -0 -3.2917616611572654e-06 -0 -2.5583935313867975e-06 6.5135665223588185e-07 0:1.19614 1:3 2:6.31441 3:19.2703 4:74.2961 5:-1.75 6:-1.6 7:-33.316 8:-638.209 9:-376.366 10:-103.071 11:966.684 12:197.814 13:6 
-0 -0 -0 -0 -0 -0 -0 -0 -0 -0.0001110693590644099 -0 -0 -0 -4.9386319395440827e-06 -0 -0 -0 -0 -0 0 0:1.08063 1:3 2:5.27093 3:19.4364 4:90.6992 5:0.2 6:-4.25 7:-36.4277 8:-925.382 9:-223.267 10:-142.773 11:963.572 12:0 13:6 
-0 -0 -1.0334549807509369e-06 -0 -0 -0 -0 -0 -0 -0 -0 -0.00031867408365519499 -0 -7.1522065005356418e-06 -0 -9.1320552101920818e-06 -0 -7.1261224373203212e-05 -0 0 0:0.906562 1:3 2:5.27545 3:16.203 4:94.1945 5:0 6:-1.5 7:-33.5958 8:-812.598 9:-217.323 10:-109.711 11:872.966 12:187.402 13:7 
-0 -0 -0 -0 -0 -1.9240912173125366e-05 -0 -0 -0 -0 -0 -0 -1.0535695964180664e-06 -1.6687353437017452e-06 -7.1016323722511377e-07 -0 -3.3901824528477233e-06 -0 -2.5337363192458129e-06 0 0:1.12706 1:3 2:5.05863 3:17.6239 4:92.0992 5:-0.833333 6:-3 7:-11.0981 8:-881.425 9:-321.846 10:-164.136 11:988.902 12:5.84112 13:6 
-0 -0 -0 -1.123718311528194e-06 -0 -0 -3.2528862080231623e-06 -1.1603611294931116e-05 -0 -0 -1.9948963936854056e-06 -0 -0 -0 -8.0336743280531495e-06 -0 -1.2415320196283313e-07 -0 -1.9332846667693222e-06 0 0:1.01469 1:3 2:7.66971 3:22.0554 4:59.2763 5:-1 6:-0.2 7:-44.4674 8:-783.868 9:-357.291 10:-262.668 11:955.533 12:201.655 13:5 
-7.4967455437353215e-06 -6.4293227300940762e-06 -4.8128355789760996e-06 -7.5110060020951111e-07 -7.0236736887862088e-06 -6.6023213528985009e-05 -7.9888397217803427e-06 -1.0517977674209309e-05 -1.9239831567731974e-05 -1.6200478870701804e-05 -1.4206298006624409e-05 -6.4396724426298665e-06 -1.5381039432248523e-05 -3.271681140799522e-05 -1.9135709596129681e-05 -5.3539410465737053e-05 -4.7953606279393463e-05 -7.7632217637647174e-06 -3.1537679437434726e-05 -7.9367435901109856e-06 0:1.12751 1:3 2:3.60079 3:13.405 4:113.321 5:-1.16667 6:-1.96552 7:-274.846 8:-881.426 9:-649.075 10:0 11:725.154 12:5.48321 13:5 
